<?xml version="1.0"?>
<opencv_storage>
<cascade>
  <stageType>BOOST</stageType>
  <featureType>LBP</featureType>
  <height>25</height>
  <width>25</width>
  <stageParams>
    <boostType>GAB</boostType>
    <minHitRate>9.9900001287460327e-01</minHitRate>
    <maxFalseAlarm>5.0000000000000000e-01</maxFalseAlarm>
    <weightTrimRate>9.4999999999999996e-01</weightTrimRate>
    <maxDepth>1</maxDepth>
    <maxWeakCount>100</maxWeakCount></stageParams>
  <featureParams>
    <maxCatCount>256</maxCatCount>
    <featSize>1</featSize></featureParams>
  <stageNum>20</stageNum>
  <stages>
    <!-- stage 0 -->
    <_>
      <maxWeakCount>2</maxWeakCount>
      <stageThreshold>-4.3109603226184845e-02</stageThreshold>
      <weakClassifiers>
        <_>
          <internalNodes>
            0 -1 48 -3934213 -711733120 -771751934 -683441662
            -1039957814 -1342046198 -514228210 -67130873</internalNodes>
          <leafValues>
            -9.2682927846908569e-01 9.0838205814361572e-01</leafValues></_>
        <_>
          <internalNodes>
            0 -1 21 -44043297 -251408125 352354357 -216825597
            -1068904309 360910848 273892107 1364189999</internalNodes>
          <leafValues>
            -8.9138382673263550e-01 8.8371968269348145e-01</leafValues></_></weakClassifiers></_>
    <!-- stage 1 -->
    <_>
      <maxWeakCount>3</maxWeakCount>
      <stageThreshold>-8.9775109291076660e-01</stageThreshold>
      <weakClassifiers>
        <_>
          <internalNodes>
            0 -1 38 -4097 1409280955 386499243 866877475 -6715233
            -360766865 -13914197 -1442337877</internalNodes>
          <leafValues>
            -8.5837650299072266e-01 8.7855046987533569e-01</leafValues></_>
        <_>
          <internalNodes>
            0 -1 40 -775687169 -526351856 -1065319108 -58195950
            -2147241490 -1467087710 -92030294 -1343349</internalNodes>
          <leafValues>
            -8.3370548486709595e-01 8.2112842798233032e-01</leafValues></_>
        <_>
          <internalNodes>
            0 -1 53 -783550066 -754892724 1090523538 -677961323
            -2138380118 -2012741502 -662531905 -1915780214</internalNodes>
          <leafValues>
            -8.6050301790237427e-01 8.0151653289794922e-01</leafValues></_></weakClassifiers></_>
    <!-- stage 2 -->
    <_>
      <maxWeakCount>3</maxWeakCount>
      <stageThreshold>-9.5915406942367554e-01</stageThreshold>
      <weakClassifiers>
        <_>
          <internalNodes>
            0 -1 52 -1 -22 -285380950 -4190 -1660957474 -58 -285309308
            -2049</internalNodes>
          <leafValues>
            -8.3476763963699341e-01 8.6849850416183472e-01</leafValues></_>
        <_>
          <internalNodes>
            0 -1 31 -749219361 -1286504053 -1593704381 -1886978001
            -661757765 1359118731 -1987114993 -83918149</internalNodes>
          <leafValues>
            -8.0858421325683594e-01 8.0145740509033203e-01</leafValues></_>
        <_>
          <internalNodes>
            0 -1 18 318985179 -787480176 823202205 -258993917 276865199
            -7856120 -2121563905 1937951930</internalNodes>
          <leafValues>
            -9.0390104055404663e-01 6.8419778347015381e-01</leafValues></_></weakClassifiers></_>
    <!-- stage 3 -->
    <_>
      <maxWeakCount>3</maxWeakCount>
      <stageThreshold>-9.4741147756576538e-01</stageThreshold>
      <weakClassifiers>
        <_>
          <internalNodes>
            0 -1 50 -1 -16727 -1358977493 -268458205 -2038191361 -287
            -1426444753 -9</internalNodes>
          <leafValues>
            -7.5126051902770996e-01 8.4278607368469238e-01</leafValues></_>
        <_>
          <internalNodes>
            0 -1 39 -715926697 -15251446 -1608365426 -1448390142
            -775372115 -1928591352 -535968593 -821048001</internalNodes>
          <leafValues>
            -8.5976523160934448e-01 7.1617847681045532e-01</leafValues></_>
        <_>
          <internalNodes>
            0 -1 9 -620277281 -619360241 -780137625 219803907
            -1065172774 -1180893046 -2012640705 1599058719</internalNodes>
          <leafValues>
            -8.6536955833435059e-01 6.6361427307128906e-01</leafValues></_></weakClassifiers></_>
    <!-- stage 4 -->
    <_>
      <maxWeakCount>5</maxWeakCount>
      <stageThreshold>-1.0673148632049561e+00</stageThreshold>
      <weakClassifiers>
        <_>
          <internalNodes>
            0 -1 44 -799549989 1359579577 114997 -715816959 -2147416842
            -926842736 1342374047 -136608606</internalNodes>
          <leafValues>
            -8.0669146776199341e-01 7.8531074523925781e-01</leafValues></_>
        <_>
          <internalNodes>
            0 -1 40 -519849697 1308760438 1346507230 -229211774
            -886855270 -368328127 1905954778 -2114645</internalNodes>
          <leafValues>
            -8.7283927202224731e-01 7.1625578403472900e-01</leafValues></_>
        <_>
          <internalNodes>
            0 -1 58 -619325999 1594036545 70517817 -853302053
            -2105425752 -1600913022 939560127 187407087</internalNodes>
          <leafValues>
            -7.5309807062149048e-01 6.9384115934371948e-01</leafValues></_>
        <_>
          <internalNodes>
            0 -1 50 -245892645 -790654080 -1044151767 -640315135 8499391
            -1316974456 -2066807793 -135269249</internalNodes>
          <leafValues>
            -7.3443120718002319e-01 7.3198676109313965e-01</leafValues></_>
        <_>
          <internalNodes>
            0 -1 5 285920682 -450444928 536887314 -645726206 -1694285333
            -2128347135 164237503 402385103</internalNodes>
          <leafValues>
            -8.0423092842102051e-01 6.5280592441558838e-01</leafValues></_></weakClassifiers></_>
    <!-- stage 5 -->
    <_>
      <maxWeakCount>5</maxWeakCount>
      <stageThreshold>-1.2006825208663940e+00</stageThreshold>
      <weakClassifiers>
        <_>
          <internalNodes>
            0 -1 49 1393161055 -710017010 -897484326 -778354448
            -494857972 -796852221 -394008364 -67372035</internalNodes>
          <leafValues>
            -8.6122447252273560e-01 7.4054056406021118e-01</leafValues></_>
        <_>
          <internalNodes>
            0 -1 16 1359081983 -720301823 -1795155555 1372655889
            -2008429893 -1144848279 -1325284677 -799821421</internalNodes>
          <leafValues>
            -7.5591623783111572e-01 7.3629736900329590e-01</leafValues></_>
        <_>
          <internalNodes>
            0 -1 64 -140330112 -772313081 -1858004642 -552103289
            -729234784 1904345112 -402325364 -68187477</internalNodes>
          <leafValues>
            -7.6979571580886841e-01 6.7049175500869751e-01</leafValues></_>
        <_>
          <internalNodes>
            0 -1 25 -229640193 542607767 -251569705 84119825 -801074809
            487718939 1942056879 1934619407</internalNodes>
          <leafValues>
            -9.1845434904098511e-01 5.4898357391357422e-01</leafValues></_>
        <_>
          <internalNodes>
            0 -1 29 -266481153 889824513 286356981 -585170943 1116301955
            -394166255 -1065074439 -157319154</internalNodes>
          <leafValues>
            -7.9111480712890625e-01 6.3727027177810669e-01</leafValues></_></weakClassifiers></_>
    <!-- stage 6 -->
    <_>
      <maxWeakCount>5</maxWeakCount>
      <stageThreshold>-1.0431762933731079e+00</stageThreshold>
      <weakClassifiers>
        <_>
          <internalNodes>
            0 -1 33 354810263 -150929387 -2147479301 -1979025219
            -679360257 -1414848351 -2138525185 -1977472081</internalNodes>
          <leafValues>
            -8.7082403898239136e-01 6.8722850084304810e-01</leafValues></_>
        <_>
          <internalNodes>
            0 -1 68 -788014917 -1232965456 -1593311101 1264272642
            -1878663013 268435456 -905478005 1594616795</internalNodes>
          <leafValues>
            -7.6964265108108521e-01 6.8322467803955078e-01</leafValues></_>
        <_>
          <internalNodes>
            0 -1 47 -776994981 -627969125 -788479569 -36760831 705446143
            -531908520 -2008872723 -69226921</internalNodes>
          <leafValues>
            -7.8855735063552856e-01 6.2498277425765991e-01</leafValues></_>
        <_>
          <internalNodes>
            0 -1 56 -804032024 -249216896 68160660 1900385622
            -1941833234 -1073641472 -1996309365 -644894049</internalNodes>
          <leafValues>
            -7.3173391819000244e-01 6.9913589954376221e-01</leafValues></_>
        <_>
          <internalNodes>
            0 -1 6 -830043418 -1069121534 1090556055 -649969664
            1091371179 33728521 -2146787061 -1176505381</internalNodes>
          <leafValues>
            -7.1235370635986328e-01 7.0404148101806641e-01</leafValues></_></weakClassifiers></_>
    <!-- stage 7 -->
    <_>
      <maxWeakCount>5</maxWeakCount>
      <stageThreshold>-9.6069759130477905e-01</stageThreshold>
      <weakClassifiers>
        <_>
          <internalNodes>
            0 -1 34 -1861136182 1440288132 -2104950784 -33716222
            12619915 -880275318 -389729840 -6104345</internalNodes>
          <leafValues>
            -8.3157896995544434e-01 7.0666664838790894e-01</leafValues></_>
        <_>
          <internalNodes>
            0 -1 2 -2 -84673922 2147151866 -228341728 -285216769
            -159909290 -8388865 -11010565</internalNodes>
          <leafValues>
            -6.0339117050170898e-01 8.2245439291000366e-01</leafValues></_>
        <_>
          <internalNodes>
            0 -1 72 -779356766 -2004467328 1627513040 -44330560
            -503132002 -1802992508 -2140556831 -710163319</internalNodes>
          <leafValues>
            -7.7318143844604492e-01 6.3190549612045288e-01</leafValues></_>
        <_>
          <internalNodes>
            0 -1 30 -212876769 -41449085 -2130182125 -620690865
            -2001861697 -2005106535 -938637157 1913313451</internalNodes>
          <leafValues>
            -7.8663778305053711e-01 6.1289751529693604e-01</leafValues></_>
        <_>
          <internalNodes>
            0 -1 73 -452280318 -267157504 163968 1342375943 -1056816894
            -435056624 -939359318 -81278654</internalNodes>
          <leafValues>
            -7.7053046226501465e-01 6.6018837690353394e-01</leafValues></_></weakClassifiers></_>
    <!-- stage 8 -->
    <_>
      <maxWeakCount>6</maxWeakCount>
      <stageThreshold>-1.4999923706054688e+00</stageThreshold>
      <weakClassifiers>
        <_>
          <internalNodes>
            0 -1 49 1346678847 -1874849380 -2141887682 -178785902
            -2140121832 -1213201906 815657148 -201723745</internalNodes>
          <leafValues>
            -7.2781062126159668e-01 7.0356816053390503e-01</leafValues></_>
        <_>
          <internalNodes>
            0 -1 29 -841927433 -652914421 1090635605 -46202737
            1078104989 -486436855 928776929 -207814141</internalNodes>
          <leafValues>
            -7.8099727630615234e-01 6.8034678697586060e-01</leafValues></_>
        <_>
          <internalNodes>
            0 -1 65 1431168294 -653852198 -1065125516 1605774236
            -534539797 -2088665078 25870736 -1073759558</internalNodes>
          <leafValues>
            -7.0174467563629150e-01 6.7896980047225952e-01</leafValues></_>
        <_>
          <internalNodes>
            0 -1 32 -687865469 -1790967807 -1878982637 -1030413311
            553650363 -1086160625 -1610604293 -1639672630</internalNodes>
          <leafValues>
            -7.5259578227996826e-01 6.1389911174774170e-01</leafValues></_>
        <_>
          <internalNodes>
            0 -1 11 -1112351369 -273809566 -32861 -1278092 2143256557
            1744830463 -167813132 -131083</internalNodes>
          <leafValues>
            -6.6557967662811279e-01 7.0260143280029297e-01</leafValues></_>
        <_>
          <internalNodes>
            0 -1 45 -262145 -4457558 -1 -5249630 -277249 -3592 -12721
            2113916351</internalNodes>
          <leafValues>
            -6.4752030372619629e-01 7.4802118539810181e-01</leafValues></_></weakClassifiers></_>
    <!-- stage 9 -->
    <_>
      <maxWeakCount>3</maxWeakCount>
      <stageThreshold>-6.8571817874908447e-01</stageThreshold>
      <weakClassifiers>
        <_>
          <internalNodes>
            0 -1 13 -235 -49359 -133 -1 -12776 -16457 -673064 -8406085</internalNodes>
          <leafValues>
            -6.0320001840591431e-01 7.9692310094833374e-01</leafValues></_>
        <_>
          <internalNodes>
            0 -1 19 -783114210 -1912532975 -1872228323 -687732575
            -2147483494 -1726218237 -1197458550 -82114423</internalNodes>
          <leafValues>
            -7.3116832971572876e-01 6.9601482152938843e-01</leafValues></_>
        <_>
          <internalNodes>
            0 -1 63 -636225561 -785805295 -1006567401 1963000082
            -661421121 1367408773 1610847182 287308216</internalNodes>
          <leafValues>
            -7.7853298187255859e-01 6.6736561059951782e-01</leafValues></_></weakClassifiers></_>
    <!-- stage 10 -->
    <_>
      <maxWeakCount>4</maxWeakCount>
      <stageThreshold>-3.7209057807922363e-01</stageThreshold>
      <weakClassifiers>
        <_>
          <internalNodes>
            0 -1 17 301404176 -234651647 -2147270655 -549085093
            135051944 -1064746446 637700520 -1145916758</internalNodes>
          <leafValues>
            -8.0737704038619995e-01 7.1402877569198608e-01</leafValues></_>
        <_>
          <internalNodes>
            0 -1 23 -1845392603 -1920368415 1073763643 -251592704
            545948041 -2069224960 41976803 -1987540588</internalNodes>
          <leafValues>
            -7.1538889408111572e-01 7.0237433910369873e-01</leafValues></_>
        <_>
          <internalNodes>
            0 -1 74 -258213430 -2004746238 201396224 252203328
            -905862879 -2037841920 -251541374 -538443881</internalNodes>
          <leafValues>
            -8.1666111946105957e-01 6.0384720563888550e-01</leafValues></_>
        <_>
          <internalNodes>
            0 -1 10 268531190 -721354751 -1879015331 -243236589
            -2147454944 -1878646268 681709728 1000975167</internalNodes>
          <leafValues>
            -8.7093508243560791e-01 5.7872897386550903e-01</leafValues></_></weakClassifiers></_>
    <!-- stage 11 -->
    <_>
      <maxWeakCount>5</maxWeakCount>
      <stageThreshold>-9.7171556949615479e-01</stageThreshold>
      <weakClassifiers>
        <_>
          <internalNodes>
            0 -1 52 -742272553 309331648 1916898338 -1001271000
            -536754034 -2112880128 -530921468 -86254697</internalNodes>
          <leafValues>
            -8.5557985305786133e-01 6.9203847646713257e-01</leafValues></_>
        <_>
          <internalNodes>
            0 -1 57 -1042837093 269701391 18945343 273006849 1207992712
            -1726578045 -2012903265 909323</internalNodes>
          <leafValues>
            -8.3098310232162476e-01 6.2118440866470337e-01</leafValues></_>
        <_>
          <internalNodes>
            0 -1 24 -779037476 879906826 587272193 -1715793917
            -1063745136 -391610280 240063 -1349582415</internalNodes>
          <leafValues>
            -7.0116990804672241e-01 7.1768963336944580e-01</leafValues></_>
        <_>
          <internalNodes>
            0 -1 14 1406783989 890323200 17354078 -654290931 -478150416
            -669999104 704686260 865271819</internalNodes>
          <leafValues>
            -7.8945171833038330e-01 6.8820059299468994e-01</leafValues></_>
        <_>
          <internalNodes>
            0 -1 8 -1884291669 -286331158 -671088661 -570425365
            -1879048194 243269629 -1744831371 -9445889</internalNodes>
          <leafValues>
            -6.7993628978729248e-01 7.8660953044891357e-01</leafValues></_></weakClassifiers></_>
    <!-- stage 12 -->
    <_>
      <maxWeakCount>5</maxWeakCount>
      <stageThreshold>-6.8011963367462158e-01</stageThreshold>
      <weakClassifiers>
        <_>
          <internalNodes>
            0 -1 12 1355081493 -720173031 25198628 -73891495 -524246524
            -391370735 -2012168104 -80749781</internalNodes>
          <leafValues>
            -7.6331359148025513e-01 7.2003662586212158e-01</leafValues></_>
        <_>
          <internalNodes>
            0 -1 26 -513 -263429 -930230561 -333186901 -33555201
            -595908545 1145502878 -66067777</internalNodes>
          <leafValues>
            -6.4253318309783936e-01 7.6166707277297974e-01</leafValues></_>
        <_>
          <internalNodes>
            0 -1 61 1901086813 -263171754 -385843010 1365377434
            -2138977371 -1164967501 -1601977206 1069242542</internalNodes>
          <leafValues>
            -8.0782222747802734e-01 6.2444442510604858e-01</leafValues></_>
        <_>
          <internalNodes>
            0 -1 75 -524333 -106626 -152043542 -226525314 -18940156
            -76021897 -159713595 -214172169</internalNodes>
          <leafValues>
            -6.2594437599182129e-01 8.2183796167373657e-01</leafValues></_>
        <_>
          <internalNodes>
            0 -1 55 1000512337 -1088127116 -259 2147287036 -1116282883
            -1881377027 1442306037 -2013297288</internalNodes>
          <leafValues>
            -6.7697310447692871e-01 7.7310699224472046e-01</leafValues></_></weakClassifiers></_>
    <!-- stage 13 -->
    <_>
      <maxWeakCount>5</maxWeakCount>
      <stageThreshold>-8.5165762901306152e-01</stageThreshold>
      <weakClassifiers>
        <_>
          <internalNodes>
            0 -1 27 -268436107 -41475 -3 -471 234364016 2147450879
            536689151 -1</internalNodes>
          <leafValues>
            -6.3252031803131104e-01 8.0101525783538818e-01</leafValues></_>
        <_>
          <internalNodes>
            0 -1 50 1677819359 1493303571 83951745 -1593043453 4262597
            1208091148 -1476284895 -170528157</internalNodes>
          <leafValues>
            -8.1482732295989990e-01 6.3563555479049683e-01</leafValues></_>
        <_>
          <internalNodes>
            0 -1 0 -524294 -92286086 -2097155 -9568515 -9373022
            1987766962 -41959830 -816350</internalNodes>
          <leafValues>
            -6.4736133813858032e-01 7.5782030820846558e-01</leafValues></_>
        <_>
          <internalNodes>
            0 -1 76 -782514526 -1995257581 1140855062 1343424551
            -2146197088 -1475803135 1108985984 -533209049</internalNodes>
          <leafValues>
            -7.2289198637008667e-01 6.9169074296951294e-01</leafValues></_>
        <_>
          <internalNodes>
            0 -1 28 38107572 -1190640883 -2139094463 -595263423
            -203369512 -1469972480 244492492 1063454914</internalNodes>
          <leafValues>
            -8.9273053407669067e-01 5.5136060714721680e-01</leafValues></_></weakClassifiers></_>
    <!-- stage 14 -->
    <_>
      <maxWeakCount>4</maxWeakCount>
      <stageThreshold>-1.6156969070434570e+00</stageThreshold>
      <weakClassifiers>
        <_>
          <internalNodes>
            0 -1 15 -511687543 -83620907 1075839245 -135822873
            -2138436689 -368408392 4221291 1443521443</internalNodes>
          <leafValues>
            -7.8705638647079468e-01 6.9313114881515503e-01</leafValues></_>
        <_>
          <internalNodes>
            0 -1 60 -1290174159 1107968274 17044693 -506265205 16882618
            -2104950648 -1063157349 151634057</internalNodes>
          <leafValues>
            -7.9991763830184937e-01 6.2632405757904053e-01</leafValues></_>
        <_>
          <internalNodes>
            0 -1 46 1615978807 1082425744 65539 -243739898 539033984
            -2137948150 -1332375288 -219152968</internalNodes>
          <leafValues>
            -8.5066390037536621e-01 5.7455903291702271e-01</leafValues></_>
        <_>
          <internalNodes>
            0 -1 4 -775568993 -463798267 8917525 -763101114 -1568538622
            -2046820352 -2122259767 -141848373</internalNodes>
          <leafValues>
            -6.5824651718139648e-01 7.8627598285675049e-01</leafValues></_></weakClassifiers></_>
    <!-- stage 15 -->
    <_>
      <maxWeakCount>5</maxWeakCount>
      <stageThreshold>-1.0167607069015503e+00</stageThreshold>
      <weakClassifiers>
        <_>
          <internalNodes>
            0 -1 40 319094935 -1438089200 268435512 -166194928
            -1860660686 -356483039 -1828603110 -5822437</internalNodes>
          <leafValues>
            -8.0132448673248291e-01 6.6521358489990234e-01</leafValues></_>
        <_>
          <internalNodes>
            0 -1 22 1125883551 -1170530533 393740287 -551659521
            -1086367817 -1693574245 -1153435649 -1895620641</internalNodes>
          <leafValues>
            -6.2762379646301270e-01 7.4680453538894653e-01</leafValues></_>
        <_>
          <internalNodes>
            0 -1 44 1259205587 1342472467 1140986213 -1056766589
            1090535665 2129922 -1073741649 -304280570</internalNodes>
          <leafValues>
            -8.6158162355422974e-01 5.5130320787429810e-01</leafValues></_>
        <_>
          <internalNodes>
            0 -1 3 -530793797 -1073688190 276832257 -667709437 638107826
            -2138955648 -2126477175 1657788299</internalNodes>
          <leafValues>
            -6.9412320852279663e-01 6.9307094812393188e-01</leafValues></_>
        <_>
          <internalNodes>
            0 -1 42 538053140 -1811640272 -2129653745 487587970
            -1610600423 -1199422075 -1809266039 -1076100183</internalNodes>
          <leafValues>
            -7.6031291484832764e-01 5.8069831132888794e-01</leafValues></_></weakClassifiers></_>
    <!-- stage 16 -->
    <_>
      <maxWeakCount>4</maxWeakCount>
      <stageThreshold>-2.6168790459632874e-01</stageThreshold>
      <weakClassifiers>
        <_>
          <internalNodes>
            0 -1 62 1477833745 2116572177 16879823 230641811 -2013231975
            -2139078527 403378382 161221769</internalNodes>
          <leafValues>
            -7.7870565652847290e-01 6.8956291675567627e-01</leafValues></_>
        <_>
          <internalNodes>
            0 -1 7 -487156012 -1877867200 -805222384 -888503800
            -1056857966 1074827299 -939425775 -1048382534</internalNodes>
          <leafValues>
            -8.1505590677261353e-01 6.2434470653533936e-01</leafValues></_>
        <_>
          <internalNodes>
            0 -1 71 -249048958 -1459617792 474157186 -49688307
            1075947439 -2004876924 -1329544981 -242253687</internalNodes>
          <leafValues>
            -7.0032763481140137e-01 7.5409579277038574e-01</leafValues></_>
        <_>
          <internalNodes>
            0 -1 69 -786851768 1359020039 268435572 -736428029
            -1828596212 17956864 -2134730584 1980490187</internalNodes>
          <leafValues>
            -8.6142271757125854e-01 6.4600348472595215e-01</leafValues></_></weakClassifiers></_>
    <!-- stage 17 -->
    <_>
      <maxWeakCount>5</maxWeakCount>
      <stageThreshold>-8.5293650627136230e-01</stageThreshold>
      <weakClassifiers>
        <_>
          <internalNodes>
            0 -1 18 -1325137569 -142606060 -2146434275 -696123300
            1699250394 -276824064 -1811119941 -207467134</internalNodes>
          <leafValues>
            -7.1484375000000000e-01 7.0404410362243652e-01</leafValues></_>
        <_>
          <internalNodes>
            0 -1 66 76193723 -285212676 -276824073 1592786429
            -1094713353 -1363218443 -868355 -1080140292</internalNodes>
          <leafValues>
            -6.0406231880187988e-01 7.7276057004928589e-01</leafValues></_>
        <_>
          <internalNodes>
            0 -1 36 -251379279 1000538531 131859 -1045266031 -2126401525
            -217988830 -1451050872 -897926912</internalNodes>
          <leafValues>
            -7.4395412206649780e-01 6.2043505907058716e-01</leafValues></_>
        <_>
          <internalNodes>
            0 -1 59 -669920879 282624144 54365 -711524009 1090832540
            -884998142 -1559132020 134987935</internalNodes>
          <leafValues>
            -8.0652046203613281e-01 5.9800511598587036e-01</leafValues></_>
        <_>
          <internalNodes>
            0 -1 20 -1272827344 308563985 9437209 420741123 -1979170651
            -1467449215 -2113404749 -1358298853</internalNodes>
          <leafValues>
            -7.2476786375045776e-01 6.8442016839981079e-01</leafValues></_></weakClassifiers></_>
    <!-- stage 18 -->
    <_>
      <maxWeakCount>5</maxWeakCount>
      <stageThreshold>-8.1108909845352173e-01</stageThreshold>
      <weakClassifiers>
        <_>
          <internalNodes>
            0 -1 37 -1877769445 1998336404 -2147282864 -771657196
            -2071919961 1497536513 45578 -854590904</internalNodes>
          <leafValues>
            -7.9487180709838867e-01 7.3467522859573364e-01</leafValues></_>
        <_>
          <internalNodes>
            0 -1 1 -318767366 -84164872 2147483647 -1092092678 -16793730
            1917878010 -671155267 -673206534</internalNodes>
          <leafValues>
            -6.4084857702255249e-01 7.5744181871414185e-01</leafValues></_>
        <_>
          <internalNodes>
            0 -1 67 -939042596 -784367616 323003730 -116610813
            -1841299316 -1743879936 -1735218552 -900996597</internalNodes>
          <leafValues>
            -7.1144527196884155e-01 6.8903142213821411e-01</leafValues></_>
        <_>
          <internalNodes>
            0 -1 35 150995091 -753852027 -1341122659 -587067124
            -1878490433 -1736245095 -1690137144 -1986510552</internalNodes>
          <leafValues>
            -6.9407725334167480e-01 7.5364309549331665e-01</leafValues></_>
        <_>
          <internalNodes>
            0 -1 70 -683083606 1360036228 1073840192 1355909518
            -2097073421 -2097152000 -1198683669 -477526378</internalNodes>
          <leafValues>
            -7.6730120182037354e-01 6.2967705726623535e-01</leafValues></_></weakClassifiers></_>
    <!-- stage 19 -->
    <_>
      <maxWeakCount>4</maxWeakCount>
      <stageThreshold>-1.5516482591629028e+00</stageThreshold>
      <weakClassifiers>
        <_>
          <internalNodes>
            0 -1 43 -1069188321 1099473174 789 150994978 16912575
            -1717501823 -1140616960 -710258468</internalNodes>
          <leafValues>
            -8.0263155698776245e-01 6.6958039999008179e-01</leafValues></_>
        <_>
          <internalNodes>
            0 -1 54 1359336422 -719777792 1561874450 496652288
            -1056743015 -637533040 -1879031299 -48294502</internalNodes>
          <leafValues>
            -7.1720844507217407e-01 6.6891753673553467e-01</leafValues></_>
        <_>
          <internalNodes>
            0 -1 41 -787413809 1430274080 -1879045975 1367397267
            1342522073 -624918507 -1061109670 -265299623</internalNodes>
          <leafValues>
            -7.3613673448562622e-01 6.6046243906021118e-01</leafValues></_>
        <_>
          <internalNodes>
            0 -1 51 -1064263036 -516060648 524416 -436076411 -922115953
            1628446737 -2147440612 148602891</internalNodes>
          <leafValues>
            -7.6788347959518433e-01 6.3231384754180908e-01</leafValues></_></weakClassifiers></_></stages>
  <features>
    <_>
      <rect>
        1 2 3 7</rect></_>
    <_>
      <rect>
        2 5 2 5</rect></_>
    <_>
      <rect>
        2 8 2 4</rect></_>
    <_>
      <rect>
        2 9 1 2</rect></_>
    <_>
      <rect>
        2 13 1 1</rect></_>
    <_>
      <rect>
        3 6 2 2</rect></_>
    <_>
      <rect>
        3 7 1 3</rect></_>
    <_>
      <rect>
        3 7 1 4</rect></_>
    <_>
      <rect>
        3 8 1 1</rect></_>
    <_>
      <rect>
        4 7 6 4</rect></_>
    <_>
      <rect>
        5 11 3 2</rect></_>
    <_>
      <rect>
        6 7 1 1</rect></_>
    <_>
      <rect>
        6 9 2 2</rect></_>
    <_>
      <rect>
        6 10 2 2</rect></_>
    <_>
      <rect>
        6 14 2 1</rect></_>
    <_>
      <rect>
        7 6 3 4</rect></_>
    <_>
      <rect>
        7 9 4 2</rect></_>
    <_>
      <rect>
        7 10 1 2</rect></_>
    <_>
      <rect>
        7 11 4 1</rect></_>
    <_>
      <rect>
        7 13 4 2</rect></_>
    <_>
      <rect>
        8 3 4 2</rect></_>
    <_>
      <rect>
        8 7 2 4</rect></_>
    <_>
      <rect>
        8 12 4 2</rect></_>
    <_>
      <rect>
        8 14 3 1</rect></_>
    <_>
      <rect>
        8 15 4 3</rect></_>
    <_>
      <rect>
        9 10 2 3</rect></_>
    <_>
      <rect>
        9 10 3 2</rect></_>
    <_>
      <rect>
        9 11 1 3</rect></_>
    <_>
      <rect>
        9 14 1 1</rect></_>
    <_>
      <rect>
        10 7 2 4</rect></_>
    <_>
      <rect>
        10 9 1 2</rect></_>
    <_>
      <rect>
        10 9 2 3</rect></_>
    <_>
      <rect>
        10 9 3 2</rect></_>
    <_>
      <rect>
        10 10 3 2</rect></_>
    <_>
      <rect>
        10 12 2 1</rect></_>
    <_>
      <rect>
        10 20 2 1</rect></_>
    <_>
      <rect>
        11 7 1 2</rect></_>
    <_>
      <rect>
        11 9 2 2</rect></_>
    <_>
      <rect>
        11 9 2 3</rect></_>
    <_>
      <rect>
        11 10 2 2</rect></_>
    <_>
      <rect>
        11 11 1 1</rect></_>
    <_>
      <rect>
        11 11 2 2</rect></_>
    <_>
      <rect>
        12 3 1 1</rect></_>
    <_>
      <rect>
        12 7 1 3</rect></_>
    <_>
      <rect>
        12 7 1 4</rect></_>
    <_>
      <rect>
        12 8 1 3</rect></_>
    <_>
      <rect>
        12 9 1 2</rect></_>
    <_>
      <rect>
        12 9 1 3</rect></_>
    <_>
      <rect>
        12 10 1 2</rect></_>
    <_>
      <rect>
        12 11 1 1</rect></_>
    <_>
      <rect>
        12 11 1 2</rect></_>
    <_>
      <rect>
        12 11 2 3</rect></_>
    <_>
      <rect>
        12 12 1 1</rect></_>
    <_>
      <rect>
        14 9 2 2</rect></_>
    <_>
      <rect>
        14 12 2 1</rect></_>
    <_>
      <rect>
        14 19 2 1</rect></_>
    <_>
      <rect>
        15 10 2 2</rect></_>
    <_>
      <rect>
        15 11 3 2</rect></_>
    <_>
      <rect>
        15 12 2 3</rect></_>
    <_>
      <rect>
        15 12 3 2</rect></_>
    <_>
      <rect>
        15 13 3 2</rect></_>
    <_>
      <rect>
        15 14 1 1</rect></_>
    <_>
      <rect>
        15 14 2 2</rect></_>
    <_>
      <rect>
        16 9 2 2</rect></_>
    <_>
      <rect>
        16 10 1 2</rect></_>
    <_>
      <rect>
        16 13 1 1</rect></_>
    <_>
      <rect>
        16 20 1 1</rect></_>
    <_>
      <rect>
        17 6 2 2</rect></_>
    <_>
      <rect>
        17 10 2 3</rect></_>
    <_>
      <rect>
        19 8 1 1</rect></_>
    <_>
      <rect>
        19 11 2 2</rect></_>
    <_>
      <rect>
        19 14 1 1</rect></_>
    <_>
      <rect>
        19 15 1 1</rect></_>
    <_>
      <rect>
        20 7 1 3</rect></_>
    <_>
      <rect>
        20 11 1 2</rect></_>
    <_>
      <rect>
        21 9 1 1</rect></_>
    <_>
      <rect>
        21 10 1 2</rect></_></features></cascade>
</opencv_storage>
