<?xml version="1.0"?>
<opencv_storage>
<cascade>
  <stageType>BOOST</stageType>
  <featureType>LBP</featureType>
  <height>50</height>
  <width>50</width>
  <stageParams>
    <boostType>GAB</boostType>
    <minHitRate>9.9900001287460327e-01</minHitRate>
    <maxFalseAlarm>5.0000000000000000e-01</maxFalseAlarm>
    <weightTrimRate>9.4999999999999996e-01</weightTrimRate>
    <maxDepth>1</maxDepth>
    <maxWeakCount>100</maxWeakCount></stageParams>
  <featureParams>
    <maxCatCount>256</maxCatCount>
    <featSize>1</featSize></featureParams>
  <stageNum>20</stageNum>
  <stages>
    <!-- stage 0 -->
    <_>
      <maxWeakCount>2</maxWeakCount>
      <stageThreshold>-9.8527550697326660e-02</stageThreshold>
      <weakClassifiers>
        <_>
          <internalNodes>
            0 -1 48 -750265650 -150429494 -785186624 -620658624
            -895446840 -1174339286 -858531638 -70259729</internalNodes>
          <leafValues>
            -9.8920863866806030e-01 9.0996170043945312e-01</leafValues></_>
        <_>
          <internalNodes>
            0 -1 25 -247205409 1930936393 262245 -553287655 -2143247141
            -1073676158 33677451 1366289291</internalNodes>
          <leafValues>
            -9.0771591663360596e-01 8.9068108797073364e-01</leafValues></_></weakClassifiers></_>
    <!-- stage 1 -->
    <_>
      <maxWeakCount>3</maxWeakCount>
      <stageThreshold>-8.5464614629745483e-01</stageThreshold>
      <weakClassifiers>
        <_>
          <internalNodes>
            0 -1 44 -235415301 -782544111 98447 1439387659 -1060388673
            1073973383 621330639 1397212107</internalNodes>
          <leafValues>
            -8.8768118619918823e-01 8.4923666715621948e-01</leafValues></_>
        <_>
          <internalNodes>
            0 -1 72 -238030117 1430331402 0 1628258563 -1040088913
            268484616 1074512043 1373594319</internalNodes>
          <leafValues>
            -8.0401146411895752e-01 8.1999272108078003e-01</leafValues></_>
        <_>
          <internalNodes>
            0 -1 46 -273 -1029 -1279811037 863990571 -25186642
            -271659348 1663483439 -500171090</internalNodes>
          <leafValues>
            -7.8695774078369141e-01 8.5739904642105103e-01</leafValues></_></weakClassifiers></_>
    <!-- stage 2 -->
    <_>
      <maxWeakCount>3</maxWeakCount>
      <stageThreshold>-1.0039823055267334e+00</stageThreshold>
      <weakClassifiers>
        <_>
          <internalNodes>
            0 -1 38 -237505793 1359200256 82116 1694875784 -805050214
            -1744076662 -2104901494 -340801398</internalNodes>
          <leafValues>
            -8.6964619159698486e-01 8.1561619043350220e-01</leafValues></_>
        <_>
          <internalNodes>
            0 -1 57 -778447666 271945990 270110938 -11429473 -536115285
            -359489368 -1744723793 -1711307317</internalNodes>
          <leafValues>
            -8.5673397779464722e-01 7.7688366174697876e-01</leafValues></_>
        <_>
          <internalNodes>
            0 -1 21 -678704165 -720301880 -536756069 -784121589
            -240393233 170623109 1921974463 1364947835</internalNodes>
          <leafValues>
            -8.9011657238006592e-01 7.2239786386489868e-01</leafValues></_></weakClassifiers></_>
    <!-- stage 3 -->
    <_>
      <maxWeakCount>4</maxWeakCount>
      <stageThreshold>-1.8121112585067749e+00</stageThreshold>
      <weakClassifiers>
        <_>
          <internalNodes>
            0 -1 41 -788008242 -783183606 -2147483640 -1823897121
            -2147450119 -1744797559 -905670433 -73401441</internalNodes>
          <leafValues>
            -8.7673956155776978e-01 7.6663625240325928e-01</leafValues></_>
        <_>
          <internalNodes>
            0 -1 62 -179309906 1935087872 -1861189544 -721207025
            -517756504 403769420 -2013198118 -676878161</internalNodes>
          <leafValues>
            -8.8245874643325806e-01 7.1324324607849121e-01</leafValues></_>
        <_>
          <internalNodes>
            0 -1 32 -778321409 -682385127 134283549 -2013249535
            -1476357957 -1634107222 134775547 -888451053</internalNodes>
          <leafValues>
            -8.6688536405563354e-01 7.1491968631744385e-01</leafValues></_>
        <_>
          <internalNodes>
            0 -1 10 -669462273 -716467944 17842193 -754646621
            -2132639496 -729120704 151015496 -743767413</internalNodes>
          <leafValues>
            -7.8172957897186279e-01 7.8131383657455444e-01</leafValues></_></weakClassifiers></_>
    <!-- stage 4 -->
    <_>
      <maxWeakCount>5</maxWeakCount>
      <stageThreshold>-9.0074050426483154e-01</stageThreshold>
      <weakClassifiers>
        <_>
          <internalNodes>
            0 -1 51 -745538817 -754839293 -2147432619 1363214691
            -802701073 1250459787 -385768949 1465864723</internalNodes>
          <leafValues>
            -8.9583331346511841e-01 7.4107140302658081e-01</leafValues></_>
        <_>
          <internalNodes>
            0 -1 35 -585772769 -747530551 33571073 -1023393280 958058682
            -771030391 -485959585 -879763221</internalNodes>
          <leafValues>
            -7.1510386466979980e-01 8.2370138168334961e-01</leafValues></_>
        <_>
          <internalNodes>
            0 -1 31 -1009653844 -783171308 77889 -243021823 -2130636584
            -2012870456 402655368 -1077960565</internalNodes>
          <leafValues>
            -8.0199807882308960e-01 7.6457864046096802e-01</leafValues></_>
        <_>
          <internalNodes>
            0 -1 75 -771243828 -721321914 -2130608064 1073840149
            -1874677518 -1341517822 -503086418 -79980065</internalNodes>
          <leafValues>
            -7.7420049905776978e-01 7.6523917913436890e-01</leafValues></_>
        <_>
          <internalNodes>
            0 -1 17 1364809857 1 -1995943719 -251654127 524507
            -2002124664 -2139062102 -1911618933</internalNodes>
          <leafValues>
            -8.2937985658645630e-01 7.4759000539779663e-01</leafValues></_></weakClassifiers></_>
    <!-- stage 5 -->
    <_>
      <maxWeakCount>4</maxWeakCount>
      <stageThreshold>-1.5824547410011292e-01</stageThreshold>
      <weakClassifiers>
        <_>
          <internalNodes>
            0 -1 22 -40783049 -781385461 -1862269816 1972203923
            -1047756629 -821458525 1073833130 1430764255</internalNodes>
          <leafValues>
            -8.1007754802703857e-01 7.5461256504058838e-01</leafValues></_>
        <_>
          <internalNodes>
            0 -1 80 -414725234 -485916649 -1073729534 -989489789
            273256448 -968753130 1128911040 -535573</internalNodes>
          <leafValues>
            -7.8560042381286621e-01 7.4492102861404419e-01</leafValues></_>
        <_>
          <internalNodes>
            0 -1 50 1915059707 -242142960 -532356406 -989732861
            1078043835 -100663152 -939340549 -99617841</internalNodes>
          <leafValues>
            -7.6425701379776001e-01 7.2090041637420654e-01</leafValues></_>
        <_>
          <internalNodes>
            0 -1 7 -714149158 -12468222 1342214152 -784236032
            -1073637237 1879244937 256138 -244328182</internalNodes>
          <leafValues>
            -8.0774921178817749e-01 7.1653199195861816e-01</leafValues></_></weakClassifiers></_>
    <!-- stage 6 -->
    <_>
      <maxWeakCount>4</maxWeakCount>
      <stageThreshold>-2.6272839307785034e-01</stageThreshold>
      <weakClassifiers>
        <_>
          <internalNodes>
            0 -1 26 -132644769 -804257664 4181 403706905 -1874329377
            -398360572 546558431 -209543053</internalNodes>
          <leafValues>
            -7.8317755460739136e-01 7.6901406049728394e-01</leafValues></_>
        <_>
          <internalNodes>
            0 -1 73 -238291982 -1995435904 285212953 -114614213
            -2147321205 134217864 -1862106485 1575862379</internalNodes>
          <leafValues>
            -7.9416316747665405e-01 7.4939119815826416e-01</leafValues></_>
        <_>
          <internalNodes>
            0 -1 3 -1004877634 -686292992 424677576 2063630848
            -1056337710 -1038088064 -1575976774 -620297718</internalNodes>
          <leafValues>
            -8.3251279592514038e-01 6.8839436769485474e-01</leafValues></_>
        <_>
          <internalNodes>
            0 -1 64 -788013934 -1257938191 1090584636 2006274379
            -2147356488 90240 746619048 228565718</internalNodes>
          <leafValues>
            -8.8577175140380859e-01 6.2621796131134033e-01</leafValues></_></weakClassifiers></_>
    <!-- stage 7 -->
    <_>
      <maxWeakCount>4</maxWeakCount>
      <stageThreshold>-1.5340592861175537e+00</stageThreshold>
      <weakClassifiers>
        <_>
          <internalNodes>
            0 -1 40 -1 -100549974 -1006583634 2147463082 -32915221
            -184827654 -268448082 -16790294</internalNodes>
          <leafValues>
            -7.5652176141738892e-01 8.1463414430618286e-01</leafValues></_>
        <_>
          <internalNodes>
            0 -1 24 -1754136612 -687630063 156439251 -786366463
            -1551630308 -108789747 154338554 -1076132465</internalNodes>
          <leafValues>
            -7.4452114105224609e-01 7.6110297441482544e-01</leafValues></_>
        <_>
          <internalNodes>
            0 -1 70 -117075749 -263585790 293830722 -217923580
            -401899237 1049224 -1039161126 2064249819</internalNodes>
          <leafValues>
            -7.3847424983978271e-01 7.4460482597351074e-01</leafValues></_>
        <_>
          <internalNodes>
            0 -1 39 290964175 1179050056 -2146959357 864585761
            -2147308945 -1061123968 -129406695 -78972454</internalNodes>
          <leafValues>
            -8.0017399787902832e-01 7.0545780658721924e-01</leafValues></_></weakClassifiers></_>
    <!-- stage 8 -->
    <_>
      <maxWeakCount>5</maxWeakCount>
      <stageThreshold>-8.4797728061676025e-01</stageThreshold>
      <weakClassifiers>
        <_>
          <internalNodes>
            0 -1 47 50453439 -413935467 8275 -171589351 -1731686149
            118165635 559531 1365082867</internalNodes>
          <leafValues>
            -8.7002098560333252e-01 7.2573465108871460e-01</leafValues></_>
        <_>
          <internalNodes>
            0 -1 15 -775880688 419432578 16864088 -251588511 -2147432294
            -1879015288 268438664 -2694229</internalNodes>
          <leafValues>
            -7.4818390607833862e-01 7.5795733928680420e-01</leafValues></_>
        <_>
          <internalNodes>
            0 -1 28 -1626172513 -600637428 1090554321 -854458222
            -2070085378 -1954545655 268476639 -1694428725</internalNodes>
          <leafValues>
            -7.3344296216964722e-01 7.3656570911407471e-01</leafValues></_>
        <_>
          <internalNodes>
            0 -1 2 1082134605 1963982929 4224 1358958791 -2147474814
            -914358112 -1862172503 1598161035</internalNodes>
          <leafValues>
            -7.4922370910644531e-01 7.6688963174819946e-01</leafValues></_>
        <_>
          <internalNodes>
            0 -1 79 -1043080502 -1860919040 8203 1375887361 37785984
            -805306368 -1056961845 -213648437</internalNodes>
          <leafValues>
            -7.6936030387878418e-01 7.6369065046310425e-01</leafValues></_></weakClassifiers></_>
    <!-- stage 9 -->
    <_>
      <maxWeakCount>4</maxWeakCount>
      <stageThreshold>-1.5274524688720703e+00</stageThreshold>
      <weakClassifiers>
        <_>
          <internalNodes>
            0 -1 49 -678047341 -2104700918 131345 -2079195133
            -2130640749 -939228672 1074397456 -291852021</internalNodes>
          <leafValues>
            -8.5971945524215698e-01 7.5295186042785645e-01</leafValues></_>
        <_>
          <internalNodes>
            0 -1 43 -1622943905 1899593746 268440838 -2019524478
            -2012954493 -1061121920 17165 -632372209</internalNodes>
          <leafValues>
            -7.7245289087295532e-01 7.3445624113082886e-01</leafValues></_>
        <_>
          <internalNodes>
            0 -1 77 -712257330 285419785 1090568192 -887406031
            -519536230 -1073709056 -905445152 -738466825</internalNodes>
          <leafValues>
            -7.2712087631225586e-01 7.8570270538330078e-01</leafValues></_>
        <_>
          <internalNodes>
            0 -1 34 76157695 -1191182329 69395473 -1056722941 33563361
            -791280352 146876554 -74481501</internalNodes>
          <leafValues>
            -7.8083062171936035e-01 7.3479682207107544e-01</leafValues></_></weakClassifiers></_>
    <!-- stage 10 -->
    <_>
      <maxWeakCount>5</maxWeakCount>
      <stageThreshold>-6.8308293819427490e-01</stageThreshold>
      <weakClassifiers>
        <_>
          <internalNodes>
            0 -1 59 2104817141 -1114894 201332991 489242495 -8463879
            -123459 1002372091 -1884325377</internalNodes>
          <leafValues>
            -5.4301834106445312e-01 8.8103252649307251e-01</leafValues></_>
        <_>
          <internalNodes>
            0 -1 14 -1808728101 1360048129 32945 -2063446015 -2108893790
            -117108734 4192 -605878008</internalNodes>
          <leafValues>
            -7.6112568378448486e-01 7.3601639270782471e-01</leafValues></_>
        <_>
          <internalNodes>
            0 -1 45 -717112995 -720268783 90883 1964224907 823632008
            -250970112 1396719882 -1488259846</internalNodes>
          <leafValues>
            -7.3769927024841309e-01 7.2835761308670044e-01</leafValues></_>
        <_>
          <internalNodes>
            0 -1 55 1082646742 1384194448 -536794111 1460142233
            -1064595302 676987009 -935231351 485882871</internalNodes>
          <leafValues>
            -8.1224966049194336e-01 7.1254760026931763e-01</leafValues></_>
        <_>
          <internalNodes>
            0 -1 9 -486350206 -717225984 -2147421901 -117047168
            -2138396278 -2013132603 -1576941429 -904138561</internalNodes>
          <leafValues>
            -7.5018292665481567e-01 7.4922353029251099e-01</leafValues></_></weakClassifiers></_>
    <!-- stage 11 -->
    <_>
      <maxWeakCount>3</maxWeakCount>
      <stageThreshold>-7.0050597190856934e-01</stageThreshold>
      <weakClassifiers>
        <_>
          <internalNodes>
            0 -1 67 -167773185 2147413503 -8392045 -649068568 -184551682
            -1090618128 2003664877 1367342555</internalNodes>
          <leafValues>
            -5.9520238637924194e-01 8.5423368215560913e-01</leafValues></_>
        <_>
          <internalNodes>
            0 -1 36 1405866991 -40857211 1380073677 1372953033 134545579
            226934912 838920467 1401596314</internalNodes>
          <leafValues>
            -7.7930974960327148e-01 7.0445644855499268e-01</leafValues></_>
        <_>
          <internalNodes>
            0 -1 1 -782868001 -686714871 1358955522 269484546
            -1878936213 -1023246263 -1073364789 1919398386</internalNodes>
          <leafValues>
            -7.7542984485626221e-01 7.0651262998580933e-01</leafValues></_></weakClassifiers></_>
    <!-- stage 12 -->
    <_>
      <maxWeakCount>5</maxWeakCount>
      <stageThreshold>-6.7707735300064087e-01</stageThreshold>
      <weakClassifiers>
        <_>
          <internalNodes>
            0 -1 66 -201329921 -252841998 -1075839523 -1687291319
            -67503637 -84968712 1893858287 1895824075</internalNodes>
          <leafValues>
            -6.1310452222824097e-01 8.2690304517745972e-01</leafValues></_>
        <_>
          <internalNodes>
            0 -1 29 -871447101 -787839723 17372161 -419166911
            -1970503515 -75497336 -1375395062 -225271134</internalNodes>
          <leafValues>
            -7.4793165922164917e-01 7.0455235242843628e-01</leafValues></_>
        <_>
          <internalNodes>
            0 -1 53 1229059027 -1055612598 100696192 897839510 138840153
            -1879048189 -528238584 -21825</internalNodes>
          <leafValues>
            -7.1832340955734253e-01 7.1642595529556274e-01</leafValues></_>
        <_>
          <internalNodes>
            0 -1 42 1342453077 -183467500 1476759825 -138405324
            536920204 -355729363 939573705 -1356314472</internalNodes>
          <leafValues>
            -7.2407406568527222e-01 7.4644476175308228e-01</leafValues></_>
        <_>
          <internalNodes>
            0 -1 63 1547761141 1896366609 159387737 500895881 -234848117
            -1995309041 4753547 466813177</internalNodes>
          <leafValues>
            -7.4840056896209717e-01 6.9892841577529907e-01</leafValues></_></weakClassifiers></_>
    <!-- stage 13 -->
    <_>
      <maxWeakCount>4</maxWeakCount>
      <stageThreshold>-2.4035699665546417e-01</stageThreshold>
      <weakClassifiers>
        <_>
          <internalNodes>
            0 -1 69 -9477 -576716819 -16781141 1391983351 -272630805
            134244536 -545784838 1594686655</internalNodes>
          <leafValues>
            -6.5714287757873535e-01 7.8706467151641846e-01</leafValues></_>
        <_>
          <internalNodes>
            0 -1 20 272683801 206836097 -2122282529 1934954515
            -530461000 -1165492096 277876914 1068330395</internalNodes>
          <leafValues>
            -7.4665886163711548e-01 7.1971094608306885e-01</leafValues></_>
        <_>
          <internalNodes>
            0 -1 37 -2146369329 -1744764918 1361052352 -180584122
            -1073463131 29530114 -1744246629 -68623649</internalNodes>
          <leafValues>
            -8.0671447515487671e-01 6.9233876466751099e-01</leafValues></_>
        <_>
          <internalNodes>
            0 -1 60 1608013181 1380725046 1291939992 353905744
            -1878982592 -801046520 -1073479424 948899979</internalNodes>
          <leafValues>
            -9.4041818380355835e-01 5.6436645984649658e-01</leafValues></_></weakClassifiers></_>
    <!-- stage 14 -->
    <_>
      <maxWeakCount>5</maxWeakCount>
      <stageThreshold>-7.5293129682540894e-01</stageThreshold>
      <weakClassifiers>
        <_>
          <internalNodes>
            0 -1 16 1360090111 -829349703 956302133 78647453 -939380593
            -360079205 335800555 404308639</internalNodes>
          <leafValues>
            -8.0478090047836304e-01 7.3224043846130371e-01</leafValues></_>
        <_>
          <internalNodes>
            0 -1 5 -324011801 -353436178 -1 -738263050 1879048191
            -989921281 1207957491 -1006633227</internalNodes>
          <leafValues>
            -6.5384799242019653e-01 8.1912702322006226e-01</leafValues></_>
        <_>
          <internalNodes>
            0 -1 23 -1060637735 1493237833 365105153 -1786756351
            -1655766840 -1857409760 25766091 -340018327</internalNodes>
          <leafValues>
            -6.9397026300430298e-01 8.2098776102066040e-01</leafValues></_>
        <_>
          <internalNodes>
            0 -1 13 1124991925 1412825161 -1878982395 -82701818
            134776995 -1470496607 -64390421 1038232502</internalNodes>
          <leafValues>
            -7.1381670236587524e-01 7.7592831850051880e-01</leafValues></_>
        <_>
          <internalNodes>
            0 -1 74 1359249420 -587001852 1073809425 315166721
            1392632452 -209584063 -633296721 1392706767</internalNodes>
          <leafValues>
            -8.8713884353637695e-01 6.2373954057693481e-01</leafValues></_></weakClassifiers></_>
    <!-- stage 15 -->
    <_>
      <maxWeakCount>2</maxWeakCount>
      <stageThreshold>-1.2857726216316223e-01</stageThreshold>
      <weakClassifiers>
        <_>
          <internalNodes>
            0 -1 18 349894555 -200605306 -2147413373 -251451135
            -526192463 10557440 -2145873429 497739776</internalNodes>
          <leafValues>
            -7.9668051004409790e-01 7.0125222206115723e-01</leafValues></_>
        <_>
          <internalNodes>
            0 -1 52 -958802610 1095180555 -2147352549 1351238338
            -1070923638 1084883080 1791959843 1855570831</internalNodes>
          <leafValues>
            -8.0075246095657349e-01 6.6810321807861328e-01</leafValues></_></weakClassifiers></_>
    <!-- stage 16 -->
    <_>
      <maxWeakCount>4</maxWeakCount>
      <stageThreshold>-2.2084972262382507e-01</stageThreshold>
      <weakClassifiers>
        <_>
          <internalNodes>
            0 -1 71 -669823014 -1827438333 268435466 -783867749
            -1842150518 1359478784 -1073249654 1359996059</internalNodes>
          <leafValues>
            -8.1702125072479248e-01 6.9380533695220947e-01</leafValues></_>
        <_>
          <internalNodes>
            0 -1 8 -1072473697 -787265527 -2147311594 1913799236 37179
            34013192 1661306299 923521795</internalNodes>
          <leafValues>
            -8.3971327543258667e-01 6.6048371791839600e-01</leafValues></_>
        <_>
          <internalNodes>
            0 -1 61 1511662685 1362313747 92356883 1833246745
            -1604179822 -1690173440 -938835749 1057639241</internalNodes>
          <leafValues>
            -7.4927788972854614e-01 7.3027312755584717e-01</leafValues></_>
        <_>
          <internalNodes>
            0 -1 12 -1795017135 -787415019 -2147450539 810549329
            -1069498176 -536702967 -251113799 1871317770</internalNodes>
          <leafValues>
            -7.9458528757095337e-01 7.2897845506668091e-01</leafValues></_></weakClassifiers></_>
    <!-- stage 17 -->
    <_>
      <maxWeakCount>5</maxWeakCount>
      <stageThreshold>-9.9150067567825317e-01</stageThreshold>
      <weakClassifiers>
        <_>
          <internalNodes>
            0 -1 19 1476351231 34432031 1350533119 -682789761 1207895871
            -1912335356 1996389711 -882901521</internalNodes>
          <leafValues>
            -6.9039148092269897e-01 7.5915223360061646e-01</leafValues></_>
        <_>
          <internalNodes>
            0 -1 54 -1701325869 -771587776 1108410401 -427290430
            -2096590711 -1572335615 570589384 -89333718</internalNodes>
          <leafValues>
            -8.5214197635650635e-01 6.4323478937149048e-01</leafValues></_>
        <_>
          <internalNodes>
            0 -1 4 -1045966337 -1052727291 8388624 -1048473530 134971567
            193626624 561827 1107280361</internalNodes>
          <leafValues>
            -7.8792428970336914e-01 6.7191761732101440e-01</leafValues></_>
        <_>
          <internalNodes>
            0 -1 76 -32268066 394477569 266 1075126545 -2113519350
            -1339514880 -2012936189 2050691099</internalNodes>
          <leafValues>
            -7.6316881179809570e-01 7.5972044467926025e-01</leafValues></_>
        <_>
          <internalNodes>
            0 -1 58 -782994475 1364217856 252207253 513804497
            -1610600287 -2136989694 453742761 -1089494332</internalNodes>
          <leafValues>
            -8.4265351295471191e-01 6.0674905776977539e-01</leafValues></_></weakClassifiers></_>
    <!-- stage 18 -->
    <_>
      <maxWeakCount>5</maxWeakCount>
      <stageThreshold>-9.2283409833908081e-01</stageThreshold>
      <weakClassifiers>
        <_>
          <internalNodes>
            0 -1 56 8627456 1913652486 335616400 -1087143793 166282
            -502267902 -2143208037 -913602098</internalNodes>
          <leafValues>
            -8.0753135681152344e-01 7.0053476095199585e-01</leafValues></_>
        <_>
          <internalNodes>
            0 -1 27 1229115773 1359175997 134348871 -1206025983
            408883376 994525184 474096603 -336068693</internalNodes>
          <leafValues>
            -6.8544405698776245e-01 7.6415908336639404e-01</leafValues></_>
        <_>
          <internalNodes>
            0 -1 30 957292919 1987252835 939533400 -796637174 339919131
            -888471517 -1586495302 -782054970</internalNodes>
          <leafValues>
            -7.7253586053848267e-01 6.9114923477172852e-01</leafValues></_>
        <_>
          <internalNodes>
            0 -1 78 -972766202 268796164 -1878966255 1091797066
            1346420880 285376512 -1040101117 -754216806</internalNodes>
          <leafValues>
            -8.1304395198822021e-01 7.0986509323120117e-01</leafValues></_>
        <_>
          <internalNodes>
            0 -1 0 1497715487 -721350400 -2130653111 -146784167
            1073760827 -1203765175 -1073741638 2130782851</internalNodes>
          <leafValues>
            -7.5756716728210449e-01 6.9985181093215942e-01</leafValues></_></weakClassifiers></_>
    <!-- stage 19 -->
    <_>
      <maxWeakCount>5</maxWeakCount>
      <stageThreshold>-5.8509165048599243e-01</stageThreshold>
      <weakClassifiers>
        <_>
          <internalNodes>
            0 -1 33 -234948332 -1308660416 336659 -1014951927 142607529
            1073704447 1019366143 -513</internalNodes>
          <leafValues>
            -6.5131580829620361e-01 8.0241936445236206e-01</leafValues></_>
        <_>
          <internalNodes>
            0 -1 65 2138430705 -69638 141824180 2147385087 2125135547
            -368408838 706746559 1325116607</internalNodes>
          <leafValues>
            -6.2657463550567627e-01 8.1124526262283325e-01</leafValues></_>
        <_>
          <internalNodes>
            0 -1 6 -1073626229 512 33554457 -805298174 -2010939005
            -1987559287 42603139 -722743573</internalNodes>
          <leafValues>
            -7.3126649856567383e-01 7.2890454530715942e-01</leafValues></_>
        <_>
          <internalNodes>
            0 -1 11 -927399937 -1074233345 -537330181 -4194305
            -1732580111 -139788289 483412265 -1628807429</internalNodes>
          <leafValues>
            -6.9881862401962280e-01 7.4724447727203369e-01</leafValues></_>
        <_>
          <internalNodes>
            0 -1 68 1426299900 -1157021416 16843184 1359020545
            -1978658432 -892850144 1770563736 -871854334</internalNodes>
          <leafValues>
            -7.6867115497589111e-01 7.1798652410507202e-01</leafValues></_></weakClassifiers></_></stages>
  <features>
    <_>
      <rect>
        0 34 9 5</rect></_>
    <_>
      <rect>
        1 23 5 7</rect></_>
    <_>
      <rect>
        1 33 10 5</rect></_>
    <_>
      <rect>
        3 26 6 3</rect></_>
    <_>
      <rect>
        4 12 3 3</rect></_>
    <_>
      <rect>
        4 16 2 4</rect></_>
    <_>
      <rect>
        4 16 3 3</rect></_>
    <_>
      <rect>
        4 17 4 7</rect></_>
    <_>
      <rect>
        4 28 3 3</rect></_>
    <_>
      <rect>
        8 9 3 6</rect></_>
    <_>
      <rect>
        10 22 5 7</rect></_>
    <_>
      <rect>
        10 26 5 6</rect></_>
    <_>
      <rect>
        11 36 3 3</rect></_>
    <_>
      <rect>
        11 38 5 3</rect></_>
    <_>
      <rect>
        12 24 4 7</rect></_>
    <_>
      <rect>
        13 19 3 4</rect></_>
    <_>
      <rect>
        13 20 9 5</rect></_>
    <_>
      <rect>
        13 26 8 3</rect></_>
    <_>
      <rect>
        14 23 5 4</rect></_>
    <_>
      <rect>
        14 26 8 2</rect></_>
    <_>
      <rect>
        14 27 4 3</rect></_>
    <_>
      <rect>
        15 14 5 8</rect></_>
    <_>
      <rect>
        15 15 4 6</rect></_>
    <_>
      <rect>
        15 23 3 4</rect></_>
    <_>
      <rect>
        15 24 3 3</rect></_>
    <_>
      <rect>
        16 16 4 6</rect></_>
    <_>
      <rect>
        16 20 7 3</rect></_>
    <_>
      <rect>
        16 21 3 5</rect></_>
    <_>
      <rect>
        16 23 7 4</rect></_>
    <_>
      <rect>
        17 12 3 5</rect></_>
    <_>
      <rect>
        17 14 6 6</rect></_>
    <_>
      <rect>
        17 21 2 5</rect></_>
    <_>
      <rect>
        17 23 6 3</rect></_>
    <_>
      <rect>
        18 21 2 6</rect></_>
    <_>
      <rect>
        18 23 2 7</rect></_>
    <_>
      <rect>
        18 23 5 3</rect></_>
    <_>
      <rect>
        18 24 4 2</rect></_>
    <_>
      <rect>
        19 20 4 4</rect></_>
    <_>
      <rect>
        21 14 3 7</rect></_>
    <_>
      <rect>
        21 20 4 5</rect></_>
    <_>
      <rect>
        22 13 3 8</rect></_>
    <_>
      <rect>
        22 24 3 2</rect></_>
    <_>
      <rect>
        22 35 4 3</rect></_>
    <_>
      <rect>
        23 17 3 5</rect></_>
    <_>
      <rect>
        23 18 4 5</rect></_>
    <_>
      <rect>
        23 20 3 4</rect></_>
    <_>
      <rect>
        23 21 3 4</rect></_>
    <_>
      <rect>
        23 21 4 3</rect></_>
    <_>
      <rect>
        23 22 2 2</rect></_>
    <_>
      <rect>
        23 23 1 2</rect></_>
    <_>
      <rect>
        23 23 2 3</rect></_>
    <_>
      <rect>
        24 16 3 6</rect></_>
    <_>
      <rect>
        24 18 3 7</rect></_>
    <_>
      <rect>
        24 20 2 3</rect></_>
    <_>
      <rect>
        24 24 1 1</rect></_>
    <_>
      <rect>
        26 17 3 8</rect></_>
    <_>
      <rect>
        27 17 4 4</rect></_>
    <_>
      <rect>
        28 20 4 3</rect></_>
    <_>
      <rect>
        28 26 3 5</rect></_>
    <_>
      <rect>
        28 26 4 5</rect></_>
    <_>
      <rect>
        29 25 2 3</rect></_>
    <_>
      <rect>
        30 5 3 3</rect></_>
    <_>
      <rect>
        30 19 3 4</rect></_>
    <_>
      <rect>
        30 27 3 4</rect></_>
    <_>
      <rect>
        31 22 3 4</rect></_>
    <_>
      <rect>
        31 23 3 6</rect></_>
    <_>
      <rect>
        32 11 4 7</rect></_>
    <_>
      <rect>
        32 12 4 8</rect></_>
    <_>
      <rect>
        32 13 5 3</rect></_>
    <_>
      <rect>
        32 18 4 7</rect></_>
    <_>
      <rect>
        34 15 3 9</rect></_>
    <_>
      <rect>
        34 17 3 5</rect></_>
    <_>
      <rect>
        34 19 3 5</rect></_>
    <_>
      <rect>
        34 20 3 6</rect></_>
    <_>
      <rect>
        36 11 3 4</rect></_>
    <_>
      <rect>
        38 11 2 5</rect></_>
    <_>
      <rect>
        38 12 3 3</rect></_>
    <_>
      <rect>
        38 16 3 7</rect></_>
    <_>
      <rect>
        39 10 2 7</rect></_>
    <_>
      <rect>
        39 13 3 6</rect></_>
    <_>
      <rect>
        40 19 2 4</rect></_></features></cascade>
</opencv_storage>
