<?xml version="1.0"?>
<opencv_storage>
<cascade>
  <stageType>BOOST</stageType>
  <featureType>LBP</featureType>
  <height>40</height>
  <width>40</width>
  <stageParams>
    <boostType>GAB</boostType>
    <minHitRate>9.9900001287460327e-01</minHitRate>
    <maxFalseAlarm>5.0000000000000000e-01</maxFalseAlarm>
    <weightTrimRate>9.4999999999999996e-01</weightTrimRate>
    <maxDepth>1</maxDepth>
    <maxWeakCount>100</maxWeakCount></stageParams>
  <featureParams>
    <maxCatCount>256</maxCatCount>
    <featSize>1</featSize></featureParams>
  <stageNum>20</stageNum>
  <stages>
    <!-- stage 0 -->
    <_>
      <maxWeakCount>3</maxWeakCount>
      <stageThreshold>-1.0177116394042969e+00</stageThreshold>
      <weakClassifiers>
        <_>
          <internalNodes>
            0 -1 48 -745540978 -779890432 1073741824 -208154624
            -528236306 -637321205 -131880214 -1326645</internalNodes>
          <leafValues>
            -9.6133565902709961e-01 9.1852569580078125e-01</leafValues></_>
        <_>
          <internalNodes>
            0 -1 34 -79435793 -653819903 1090584589 -1694257149
            -2147299190 100827147 237979 305914559</internalNodes>
          <leafValues>
            -8.8138943910598755e-01 8.3742207288742065e-01</leafValues></_>
        <_>
          <internalNodes>
            0 -1 53 -179314225 -654245109 17924444 -746372862
            -1822508593 33980546 1073842347 1364971439</internalNodes>
          <leafValues>
            -8.7720686197280884e-01 8.2501345872879028e-01</leafValues></_></weakClassifiers></_>
    <!-- stage 1 -->
    <_>
      <maxWeakCount>3</maxWeakCount>
      <stageThreshold>-1.0363001823425293e+00</stageThreshold>
      <weakClassifiers>
        <_>
          <internalNodes>
            0 -1 44 -788013365 -257728480 16794626 -749499902
            -1031544598 -1879023606 -2012903250 -67114838</internalNodes>
          <leafValues>
            -8.8706737756729126e-01 8.4395813941955566e-01</leafValues></_>
        <_>
          <internalNodes>
            0 -1 25 -708061473 -646725627 1100024211 -250277855
            -925252354 270108694 -402093586 1399837595</internalNodes>
          <leafValues>
            -8.6233675479888916e-01 7.7383893728256226e-01</leafValues></_>
        <_>
          <internalNodes>
            0 -1 59 -640424966 -779955072 1140854915 1259569426
            -1073169670 10489870 -893192033 1084749739</internalNodes>
          <leafValues>
            -9.0570086240768433e-01 7.1310395002365112e-01</leafValues></_></weakClassifiers></_>
    <!-- stage 2 -->
    <_>
      <maxWeakCount>3</maxWeakCount>
      <stageThreshold>-1.0365467071533203e+00</stageThreshold>
      <weakClassifiers>
        <_>
          <internalNodes>
            0 -1 47 -213256754 -549383858 -1870588792 -105819390
            -1065231224 -108855160 -1148996465 -65</internalNodes>
          <leafValues>
            -9.1538459062576294e-01 8.1111109256744385e-01</leafValues></_>
        <_>
          <internalNodes>
            0 -1 61 -741349430 -751763195 286261334 -247516817
            -805011318 -191823358 -1736386406 -1660179829</internalNodes>
          <leafValues>
            -8.1355422735214233e-01 7.6737451553344727e-01</leafValues></_>
        <_>
          <internalNodes>
            0 -1 73 1908797675 -788021246 1124270084 151179266
            -1471970610 1518403593 1091463307 1497485743</internalNodes>
          <leafValues>
            -8.3396762609481812e-01 6.9239211082458496e-01</leafValues></_></weakClassifiers></_>
    <!-- stage 3 -->
    <_>
      <maxWeakCount>3</maxWeakCount>
      <stageThreshold>-9.2929619550704956e-01</stageThreshold>
      <weakClassifiers>
        <_>
          <internalNodes>
            0 -1 32 -258736129 -544239589 843268097 -754514685
            -527722365 -1446797176 1493287899 169595387</internalNodes>
          <leafValues>
            -8.0898874998092651e-01 7.8048777580261230e-01</leafValues></_>
        <_>
          <internalNodes>
            0 -1 77 -614991109 1363658880 -2113781558 -787642357
            -117276517 134217868 -845168497 1430767071</internalNodes>
          <leafValues>
            -7.6612198352813721e-01 7.4830603599548340e-01</leafValues></_>
        <_>
          <internalNodes>
            0 -1 40 -246418726 -569470976 -2143792982 -544239462
            -654191394 -1442610679 579126682 -68682789</internalNodes>
          <leafValues>
            -8.3816081285476685e-01 6.4581453800201416e-01</leafValues></_></weakClassifiers></_>
    <!-- stage 4 -->
    <_>
      <maxWeakCount>5</maxWeakCount>
      <stageThreshold>-1.1019266843795776e+00</stageThreshold>
      <weakClassifiers>
        <_>
          <internalNodes>
            0 -1 50 -4097 -8193 -538972193 1465893871 -22544389
            1341349887 -270532645 1474289663</internalNodes>
          <leafValues>
            -7.3174870014190674e-01 8.2195848226547241e-01</leafValues></_>
        <_>
          <internalNodes>
            0 -1 55 -514599937 -223346364 805486830 -997289982
            -805068644 -99811200 -1975474040 -90265362</internalNodes>
          <leafValues>
            -8.6133915185928345e-01 6.9376581907272339e-01</leafValues></_>
        <_>
          <internalNodes>
            0 -1 19 -648947204 -782896752 276971659 2139349315 129548468
            144244736 411140847 805290207</internalNodes>
          <leafValues>
            -8.6921823024749756e-01 6.2134486436843872e-01</leafValues></_>
        <_>
          <internalNodes>
            0 -1 62 -784125878 822149504 12304 1367572757 -527576163
            -1206222720 143295230 -175116277</internalNodes>
          <leafValues>
            -8.1187963485717773e-01 6.6597443819046021e-01</leafValues></_>
        <_>
          <internalNodes>
            0 -1 41 2000011479 -217563136 1895841803 -2130005621
            -1047936787 -1191147456 -785862753 -2889557</internalNodes>
          <leafValues>
            -7.6325809955596924e-01 6.8169587850570679e-01</leafValues></_></weakClassifiers></_>
    <!-- stage 5 -->
    <_>
      <maxWeakCount>4</maxWeakCount>
      <stageThreshold>-1.5167613029479980e+00</stageThreshold>
      <weakClassifiers>
        <_>
          <internalNodes>
            0 -1 18 -787097601 -732688319 311 -1877954359 -511540561
            -662011720 805351931 -260009750</internalNodes>
          <leafValues>
            -8.3665341138839722e-01 7.4681240320205688e-01</leafValues></_>
        <_>
          <internalNodes>
            0 -1 39 -787352149 1439793153 2719744 -746334781 -1996455543
            -1173323584 -1976985365 -580149149</internalNodes>
          <leafValues>
            -8.3118277788162231e-01 6.8617814779281616e-01</leafValues></_>
        <_>
          <internalNodes>
            0 -1 23 -134226025 -8359 -33562795 -1 1069307356 -32996
            532613208 -20641</internalNodes>
          <leafValues>
            -6.6376918554306030e-01 7.6043277978897095e-01</leafValues></_>
        <_>
          <internalNodes>
            0 -1 21 1140986367 135266313 70015 -1660287661 524734
            -2012544896 -2147479377 -368852360</internalNodes>
          <leafValues>
            -7.6862174272537231e-01 6.6305309534072876e-01</leafValues></_></weakClassifiers></_>
    <!-- stage 6 -->
    <_>
      <maxWeakCount>4</maxWeakCount>
      <stageThreshold>-1.5452510118484497e+00</stageThreshold>
      <weakClassifiers>
        <_>
          <internalNodes>
            0 -1 43 -183511045 1427349760 16893062 -778600446 4669534
            570572946 134267562 -34741698</internalNodes>
          <leafValues>
            -8.0800002813339233e-01 7.3090910911560059e-01</leafValues></_>
        <_>
          <internalNodes>
            0 -1 84 -114834550 -619609854 -2147483136 -922542013
            -536248154 279068930 -805306220 -748952881</internalNodes>
          <leafValues>
            -7.5358295440673828e-01 6.9579547643661499e-01</leafValues></_>
        <_>
          <internalNodes>
            0 -1 9 -256713985 -4194305 -302079237 1073725182 -2143627525
            -4325377 2622537 -207923457</internalNodes>
          <leafValues>
            -6.8298614025115967e-01 7.3476153612136841e-01</leafValues></_>
        <_>
          <internalNodes>
            0 -1 68 -685253884 -787413237 268853658 -783171573
            -503068750 1358958592 948111580 -1279283029</internalNodes>
          <leafValues>
            -7.5006043910980225e-01 6.5577274560928345e-01</leafValues></_></weakClassifiers></_>
    <!-- stage 7 -->
    <_>
      <maxWeakCount>5</maxWeakCount>
      <stageThreshold>-7.7727359533309937e-01</stageThreshold>
      <weakClassifiers>
        <_>
          <internalNodes>
            0 -1 26 -1397686273 2097414094 1576895765 -1048576001
            213387424 -257 74450234 -28929</internalNodes>
          <leafValues>
            -6.9120287895202637e-01 7.5263661146163940e-01</leafValues></_>
        <_>
          <internalNodes>
            0 -1 76 -670828388 294848708 -2080309248 -682000059
            -1686077272 -897023834 -2104972646 303814843</internalNodes>
          <leafValues>
            -7.6043409109115601e-01 6.2759310007095337e-01</leafValues></_>
        <_>
          <internalNodes>
            0 -1 52 -849897505 1343340738 1342242857 1359049233
            -1498659606 33571429 1132726319 -743449809</internalNodes>
          <leafValues>
            -6.5574496984481812e-01 6.6505241394042969e-01</leafValues></_>
        <_>
          <internalNodes>
            0 -1 17 1360110684 -1191079920 276955528 2064909316
            -2139094866 -1677573702 142739625 -1656586086</internalNodes>
          <leafValues>
            -6.5170431137084961e-01 6.9218617677688599e-01</leafValues></_>
        <_>
          <internalNodes>
            0 -1 79 1896995242 -1291747326 356544 -2094722432
            -1601986421 973244600 402729103 1471145578</internalNodes>
          <leafValues>
            -6.8050903081893921e-01 6.6101527214050293e-01</leafValues></_></weakClassifiers></_>
    <!-- stage 8 -->
    <_>
      <maxWeakCount>6</maxWeakCount>
      <stageThreshold>-1.5069525241851807e+00</stageThreshold>
      <weakClassifiers>
        <_>
          <internalNodes>
            0 -1 22 -47120431 -2555919 -788463329 960506193 -1030324093
            -524392 -8389377 -82641101</internalNodes>
          <leafValues>
            -6.4048868417739868e-01 7.4683547019958496e-01</leafValues></_>
        <_>
          <internalNodes>
            0 -1 0 -17629478 2105518714 2002842274 285261874 -8388870
            -553681665 -8914962 -1073761613</internalNodes>
          <leafValues>
            -6.1047708988189697e-01 6.9545048475265503e-01</leafValues></_>
        <_>
          <internalNodes>
            0 -1 42 -649735557 1384546562 -1877966572 1426506056
            1355010265 1075142800 -712850738 -654455126</internalNodes>
          <leafValues>
            -8.2025510072708130e-01 5.6365400552749634e-01</leafValues></_>
        <_>
          <internalNodes>
            0 -1 27 -259599617 -774811631 285283291 -2021388261
            -255819619 -1073149936 -1968307813 -884932581</internalNodes>
          <leafValues>
            -6.4470285177230835e-01 6.9489187002182007e-01</leafValues></_>
        <_>
          <internalNodes>
            0 -1 12 -783142258 -804253686 16810050 -719484928 -938995556
            -1068892146 723391183 2132349519</internalNodes>
          <leafValues>
            -7.1114075183868408e-01 6.3389331102371216e-01</leafValues></_>
        <_>
          <internalNodes>
            0 -1 54 1342568647 1356968035 1092657443 -45084077
            -267018162 1208107144 1930908427 1935407035</internalNodes>
          <leafValues>
            -8.0786520242691040e-01 5.3620278835296631e-01</leafValues></_></weakClassifiers></_>
    <!-- stage 9 -->
    <_>
      <maxWeakCount>4</maxWeakCount>
      <stageThreshold>-1.5542504787445068e+00</stageThreshold>
      <weakClassifiers>
        <_>
          <internalNodes>
            0 -1 31 -1427310340 -1761939461 -1614872701 -80691201
            264121599 -4521985 488443615 -68218881</internalNodes>
          <leafValues>
            -6.5888690948486328e-01 7.3537874221801758e-01</leafValues></_>
        <_>
          <internalNodes>
            0 -1 14 -783814472 1393008662 -2147440205 -1659788958
            134316184 -1291845622 566921610 -1186823270</internalNodes>
          <leafValues>
            -7.5407987833023071e-01 6.4128416776657104e-01</leafValues></_>
        <_>
          <internalNodes>
            0 -1 69 -716851808 1931080199 327178544 1429405785
            -1576893452 1648361475 -1743204148 -1785218149</internalNodes>
          <leafValues>
            -8.4579527378082275e-01 5.4091048240661621e-01</leafValues></_>
        <_>
          <internalNodes>
            0 -1 1 -1877995326 -721190587 49154 1495515137 -2130017026
            -1610610687 1745002675 -70311793</internalNodes>
          <leafValues>
            -6.9283241033554077e-01 7.0451152324676514e-01</leafValues></_></weakClassifiers></_>
    <!-- stage 10 -->
    <_>
      <maxWeakCount>5</maxWeakCount>
      <stageThreshold>-7.1629381179809570e-01</stageThreshold>
      <weakClassifiers>
        <_>
          <internalNodes>
            0 -1 37 1359867956 -775826400 286019834 -183398059
            -1876851031 -1874263487 -1471559373 -1846861</internalNodes>
          <leafValues>
            -7.4559688568115234e-01 7.1717172861099243e-01</leafValues></_>
        <_>
          <internalNodes>
            0 -1 38 -1656398573 -721092576 268455949 579457581
            -800026357 -1258159484 -1860667185 -1088300385</internalNodes>
          <leafValues>
            -7.3081165552139282e-01 7.1297454833984375e-01</leafValues></_>
        <_>
          <internalNodes>
            0 -1 64 2121649137 1999359417 1058905 1930766907 -6
            1530855354 176040955 160428027</internalNodes>
          <leafValues>
            -7.1186894178390503e-01 7.4319654703140259e-01</leafValues></_>
        <_>
          <internalNodes>
            0 -1 83 -1801989394 1358954564 83918856 -746487678
            -2147409714 -2113339360 -1475903094 -1020300629</internalNodes>
          <leafValues>
            -7.4827659130096436e-01 7.2439622879028320e-01</leafValues></_>
        <_>
          <internalNodes>
            0 -1 4 -134226246 721075944 -268501508 858423224 -285212745
            -260243458 -8414113 -276840454</internalNodes>
          <leafValues>
            -6.5476071834564209e-01 7.6519477367401123e-01</leafValues></_></weakClassifiers></_>
    <!-- stage 11 -->
    <_>
      <maxWeakCount>5</maxWeakCount>
      <stageThreshold>-7.9106444120407104e-01</stageThreshold>
      <weakClassifiers>
        <_>
          <internalNodes>
            0 -1 35 1953453517 1347252292 1079005296 -81706366
            1090519122 125829380 2098168554 -47195990</internalNodes>
          <leafValues>
            -7.4329501390457153e-01 7.3098331689834595e-01</leafValues></_>
        <_>
          <internalNodes>
            0 -1 66 -27928079 -146872132 1046032761 -1208004612 -132161
            -838141254 170933503 197120207</internalNodes>
          <leafValues>
            -6.6840559244155884e-01 7.3031944036483765e-01</leafValues></_>
        <_>
          <internalNodes>
            0 -1 30 -972839905 -2003959673 19665823 1091043550
            -2143768054 -1861745976 -1446998648 -636335955</internalNodes>
          <leafValues>
            -7.5613629817962646e-01 6.3631790876388550e-01</leafValues></_>
        <_>
          <internalNodes>
            0 -1 7 -105461171 1140936848 4232 -200236410 1074298889
            -1844936318 35342 -507795026</internalNodes>
          <leafValues>
            -6.8267482519149780e-01 7.3365831375122070e-01</leafValues></_>
        <_>
          <internalNodes>
            0 -1 78 -121121829 -712791935 66304 -531898339 -1060863941
            806355176 -989804277 1563410667</internalNodes>
          <leafValues>
            -7.3173195123672485e-01 6.7978829145431519e-01</leafValues></_></weakClassifiers></_>
    <!-- stage 12 -->
    <_>
      <maxWeakCount>5</maxWeakCount>
      <stageThreshold>-9.5966535806655884e-01</stageThreshold>
      <weakClassifiers>
        <_>
          <internalNodes>
            0 -1 63 -751444811 981730852 1047809407 40904728 -8391551
            -327938 -1355448323 -67129601</internalNodes>
          <leafValues>
            -6.3973063230514526e-01 7.7534788846969604e-01</leafValues></_>
        <_>
          <internalNodes>
            0 -1 81 -1071787838 1493291013 269025378 -787773341
            -1440699262 -133692159 -397891154 -230698805</internalNodes>
          <leafValues>
            -6.8911242485046387e-01 7.6273518800735474e-01</leafValues></_>
        <_>
          <internalNodes>
            0 -1 46 65521939 -2143113136 -2130706175 -904347384
            -2138210047 -1574862840 50469632 -21305142</internalNodes>
          <leafValues>
            -8.6897009611129761e-01 5.9575611352920532e-01</leafValues></_>
        <_>
          <internalNodes>
            0 -1 70 1505084107 1091616961 536871960 -2130608062
            -2138996094 -1063190528 -2147383070 1548070942</internalNodes>
          <leafValues>
            -8.4211081266403198e-01 5.9040206670761108e-01</leafValues></_>
        <_>
          <internalNodes>
            0 -1 11 1342226655 1342291975 1074987159 1434673666 33587630
            -2012217216 -1172268101 453184648</internalNodes>
          <leafValues>
            -7.6733285188674927e-01 6.7228448390960693e-01</leafValues></_></weakClassifiers></_>
    <!-- stage 13 -->
    <_>
      <maxWeakCount>3</maxWeakCount>
      <stageThreshold>-5.6449288129806519e-01</stageThreshold>
      <weakClassifiers>
        <_>
          <internalNodes>
            0 -1 58 -277 -29249089 -318635616 -581697679 -285605844 -1
            -960715260 -16779913</internalNodes>
          <leafValues>
            -6.7844521999359131e-01 7.5822049379348755e-01</leafValues></_>
        <_>
          <internalNodes>
            0 -1 16 -323944961 2142502911 -1665384461 -1073741954
            -1645036033 -65537 203425033 -26133</internalNodes>
          <leafValues>
            -6.1001735925674438e-01 8.0496674776077271e-01</leafValues></_>
        <_>
          <internalNodes>
            0 -1 3 -1022111309 -1592917850 -1744235111 -1651140469
            159383739 159584642 1082835075 1403766173</internalNodes>
          <leafValues>
            -6.7349672317504883e-01 7.2396969795227051e-01</leafValues></_></weakClassifiers></_>
    <!-- stage 14 -->
    <_>
      <maxWeakCount>5</maxWeakCount>
      <stageThreshold>-7.1472811698913574e-01</stageThreshold>
      <weakClassifiers>
        <_>
          <internalNodes>
            0 -1 24 -268480515 -164 -1073741835 -33587201 1859391704
            -189067 880285946 -1</internalNodes>
          <leafValues>
            -5.4518073797225952e-01 8.1410259008407593e-01</leafValues></_>
        <_>
          <internalNodes>
            0 -1 85 -41943222 -268439795 -135279362 -454033597
            -1073744046 -3670201 1434408176 -683671649</internalNodes>
          <leafValues>
            -6.4822190999984741e-01 7.6659905910491943e-01</leafValues></_>
        <_>
          <internalNodes>
            0 -1 60 -901582044 -652672109 268437778 1392574611
            -2113830770 -264044525 -1048544629 1238862223</internalNodes>
          <leafValues>
            -7.6939254999160767e-01 6.5890473127365112e-01</leafValues></_>
        <_>
          <internalNodes>
            0 -1 56 -802961669 -1827635072 1082153224 -1224715696
            268599353 -1056899064 1078461004 2147416395</internalNodes>
          <leafValues>
            -7.4968165159225464e-01 6.6995185613632202e-01</leafValues></_>
        <_>
          <internalNodes>
            0 -1 5 -519708088 -2013228336 16908288 -536698112
            -2012682177 -2147188526 42508803 -605296641</internalNodes>
          <leafValues>
            -7.8983187675476074e-01 6.4333671331405640e-01</leafValues></_></weakClassifiers></_>
    <!-- stage 15 -->
    <_>
      <maxWeakCount>5</maxWeakCount>
      <stageThreshold>-5.4699331521987915e-01</stageThreshold>
      <weakClassifiers>
        <_>
          <internalNodes>
            0 -1 10 262717234 -306027998 -1082130571 1307312224
            -1616187457 -290533385 801077247 -1683497473</internalNodes>
          <leafValues>
            -5.0534349679946899e-01 7.7354496717453003e-01</leafValues></_>
        <_>
          <internalNodes>
            0 -1 75 2140380935 -767343838 -2096848894 -668753069
            -939454018 -1979512316 1114308747 1426716847</internalNodes>
          <leafValues>
            -6.9764292240142822e-01 6.5033167600631714e-01</leafValues></_>
        <_>
          <internalNodes>
            0 -1 8 -927270405 -88408066 251102974 -268435458 -994421251
            -134218753 143655129 -222572809</internalNodes>
          <leafValues>
            -6.1126971244812012e-01 6.8256992101669312e-01</leafValues></_>
        <_>
          <internalNodes>
            0 -1 29 -616835429 -1206957026 1173256191 -749832705
            87688633 -1987361441 218035423 -1637556514</internalNodes>
          <leafValues>
            -5.5526423454284668e-01 7.2913694381713867e-01</leafValues></_>
        <_>
          <internalNodes>
            0 -1 57 -1044131557 -1056735200 1224743169 -1727668156
            1879179440 -1065320288 169486444 -683478154</internalNodes>
          <leafValues>
            -7.5020104646682739e-01 5.9668719768524170e-01</leafValues></_></weakClassifiers></_>
    <!-- stage 16 -->
    <_>
      <maxWeakCount>5</maxWeakCount>
      <stageThreshold>-9.2814666032791138e-01</stageThreshold>
      <weakClassifiers>
        <_>
          <internalNodes>
            0 -1 15 -1056575214 1887666288 1494552596 -184465001
            -2146844662 -627406680 -1039890168 -819222261</internalNodes>
          <leafValues>
            -7.4793386459350586e-01 6.8279570341110229e-01</leafValues></_>
        <_>
          <internalNodes>
            0 -1 51 -1970938625 -1584840375 1140926720 300622080
            -2013183861 -1971191669 -486192561 -564176094</internalNodes>
          <leafValues>
            -7.6090484857559204e-01 6.6623169183731079e-01</leafValues></_>
        <_>
          <internalNodes>
            0 -1 65 524333329 1932576776 285511769 2132677020
            -2147450379 -1993742304 159403141 430483584</internalNodes>
          <leafValues>
            -7.9616773128509521e-01 6.0378092527389526e-01</leafValues></_>
        <_>
          <internalNodes>
            0 -1 17 -1861971940 436273170 822096145 -784261119
            -2146991941 -801603584 -2004842276 -879622014</internalNodes>
          <leafValues>
            -7.3496872186660767e-01 6.5863162279129028e-01</leafValues></_>
        <_>
          <internalNodes>
            0 -1 2 1359695964 1359162112 1623462163 1895895056
            -796786679 1367343153 -1005748209 1259182123</internalNodes>
          <leafValues>
            -7.1884971857070923e-01 6.8486756086349487e-01</leafValues></_></weakClassifiers></_>
    <!-- stage 17 -->
    <_>
      <maxWeakCount>5</maxWeakCount>
      <stageThreshold>-8.2081353664398193e-01</stageThreshold>
      <weakClassifiers>
        <_>
          <internalNodes>
            0 -1 33 -1073658787 269776643 16800153 -1442127487
            -792362760 -1602125558 -849239775 -1442141399</internalNodes>
          <leafValues>
            -7.2819471359252930e-01 6.8563687801361084e-01</leafValues></_>
        <_>
          <internalNodes>
            0 -1 72 2131738616 1532730188 -1386283041 1432312791
            2147409608 -808517684 -279982123 -816194725</internalNodes>
          <leafValues>
            -5.7688856124877930e-01 7.7064836025238037e-01</leafValues></_>
        <_>
          <internalNodes>
            0 -1 13 -919284794 1497432082 332813 -132333504 32900
            -1063059305 1116506218 -15685601</internalNodes>
          <leafValues>
            -7.9498386383056641e-01 6.0963094234466553e-01</leafValues></_>
        <_>
          <internalNodes>
            0 -1 28 -282088641 -1897951841 85890527 -1056226081
            992687413 -1190586963 356464543 -1618119507</internalNodes>
          <leafValues>
            -6.0713815689086914e-01 7.5452786684036255e-01</leafValues></_>
        <_>
          <internalNodes>
            0 -1 6 -171388292 -2111303162 268468298 -1877294040
            -2145156814 -1576357887 -1576883900 -2100481</internalNodes>
          <leafValues>
            -8.2538366317749023e-01 5.3885477781295776e-01</leafValues></_></weakClassifiers></_>
    <!-- stage 18 -->
    <_>
      <maxWeakCount>4</maxWeakCount>
      <stageThreshold>-1.4140064716339111e+00</stageThreshold>
      <weakClassifiers>
        <_>
          <internalNodes>
            0 -1 82 1342263436 1369506947 570447891 -1064663903 4632068
            2055405569 -938865974 -636839285</internalNodes>
          <leafValues>
            -7.4141412973403931e-01 6.9411766529083252e-01</leafValues></_>
        <_>
          <internalNodes>
            0 -1 74 -50342823 1868299301 -218169601 -210275203 -29819416
            2113601318 -132579585 -83247297</internalNodes>
          <leafValues>
            -5.8230131864547729e-01 8.0654376745223999e-01</leafValues></_>
        <_>
          <internalNodes>
            0 -1 67 1910362448 -546679744 33652872 -788147194 1342419121
            1075845312 293603480 2033703758</internalNodes>
          <leafValues>
            -7.6913684606552124e-01 6.1013573408126831e-01</leafValues></_>
        <_>
          <internalNodes>
            0 -1 45 -452351739 129351745 34705555 822489355 -802372959
            1551990954 1015120261 1435493274</internalNodes>
          <leafValues>
            -7.5668597221374512e-01 6.0318166017532349e-01</leafValues></_></weakClassifiers></_>
    <!-- stage 19 -->
    <_>
      <maxWeakCount>5</maxWeakCount>
      <stageThreshold>-5.8964335918426514e-01</stageThreshold>
      <weakClassifiers>
        <_>
          <internalNodes>
            0 -1 36 1348151511 1543585989 822314247 562274691 -369251692
            -1735909370 1116390147 -12866918</internalNodes>
          <leafValues>
            -5.8576053380966187e-01 7.7596741914749146e-01</leafValues></_>
        <_>
          <internalNodes>
            0 -1 80 -926221451 -788299759 50397289 1287774209 29532288
            -1996128254 -930053989 -771496181</internalNodes>
          <leafValues>
            -6.1887139081954956e-01 7.6772081851959229e-01</leafValues></_>
        <_>
          <internalNodes>
            0 -1 71 -1579941803 -737730551 16777553 1912668225
            -1936553730 -1702232055 -1609938897 455740331</internalNodes>
          <leafValues>
            -6.8093591928482056e-01 6.7355209589004517e-01</leafValues></_>
        <_>
          <internalNodes>
            0 -1 20 1360598415 760381700 237080593 -2049572848
            -2139071813 -1711079416 1099178159 -544288614</internalNodes>
          <leafValues>
            -6.9095951318740845e-01 6.7818945646286011e-01</leafValues></_>
        <_>
          <internalNodes>
            0 -1 49 1360386710 -804912717 1632633346 -783953323
            -2130703096 -2145910134 382621 -473631151</internalNodes>
          <leafValues>
            -7.2933197021484375e-01 6.3464558124542236e-01</leafValues></_></weakClassifiers></_></stages>
  <features>
    <_>
      <rect>
        1 17 5 5</rect></_>
    <_>
      <rect>
        1 17 6 5</rect></_>
    <_>
      <rect>
        1 23 4 5</rect></_>
    <_>
      <rect>
        3 10 3 2</rect></_>
    <_>
      <rect>
        4 13 2 6</rect></_>
    <_>
      <rect>
        4 14 2 4</rect></_>
    <_>
      <rect>
        4 16 2 3</rect></_>
    <_>
      <rect>
        4 18 2 3</rect></_>
    <_>
      <rect>
        5 18 5 5</rect></_>
    <_>
      <rect>
        5 19 5 5</rect></_>
    <_>
      <rect>
        7 8 3 3</rect></_>
    <_>
      <rect>
        8 22 3 3</rect></_>
    <_>
      <rect>
        9 11 3 3</rect></_>
    <_>
      <rect>
        10 8 3 4</rect></_>
    <_>
      <rect>
        10 14 2 4</rect></_>
    <_>
      <rect>
        10 16 3 2</rect></_>
    <_>
      <rect>
        10 19 3 6</rect></_>
    <_>
      <rect>
        11 22 6 2</rect></_>
    <_>
      <rect>
        12 14 6 3</rect></_>
    <_>
      <rect>
        12 17 3 4</rect></_>
    <_>
      <rect>
        12 19 6 3</rect></_>
    <_>
      <rect>
        12 21 6 2</rect></_>
    <_>
      <rect>
        13 9 2 4</rect></_>
    <_>
      <rect>
        13 16 2 4</rect></_>
    <_>
      <rect>
        13 17 2 4</rect></_>
    <_>
      <rect>
        13 17 3 3</rect></_>
    <_>
      <rect>
        13 18 2 6</rect></_>
    <_>
      <rect>
        13 19 5 2</rect></_>
    <_>
      <rect>
        13 19 5 3</rect></_>
    <_>
      <rect>
        13 21 5 2</rect></_>
    <_>
      <rect>
        14 19 5 3</rect></_>
    <_>
      <rect>
        14 21 2 4</rect></_>
    <_>
      <rect>
        15 10 2 7</rect></_>
    <_>
      <rect>
        15 13 5 5</rect></_>
    <_>
      <rect>
        15 14 2 4</rect></_>
    <_>
      <rect>
        16 11 3 5</rect></_>
    <_>
      <rect>
        16 16 4 4</rect></_>
    <_>
      <rect>
        16 17 3 2</rect></_>
    <_>
      <rect>
        16 17 4 3</rect></_>
    <_>
      <rect>
        16 19 3 2</rect></_>
    <_>
      <rect>
        17 17 2 2</rect></_>
    <_>
      <rect>
        17 17 3 3</rect></_>
    <_>
      <rect>
        18 11 2 6</rect></_>
    <_>
      <rect>
        18 12 2 6</rect></_>
    <_>
      <rect>
        18 13 2 5</rect></_>
    <_>
      <rect>
        18 15 3 4</rect></_>
    <_>
      <rect>
        18 17 1 2</rect></_>
    <_>
      <rect>
        18 17 2 2</rect></_>
    <_>
      <rect>
        18 18 2 2</rect></_>
    <_>
      <rect>
        18 18 2 3</rect></_>
    <_>
      <rect>
        19 13 3 5</rect></_>
    <_>
      <rect>
        19 14 2 4</rect></_>
    <_>
      <rect>
        19 15 2 4</rect></_>
    <_>
      <rect>
        19 16 3 3</rect></_>
    <_>
      <rect>
        19 17 2 3</rect></_>
    <_>
      <rect>
        19 19 1 1</rect></_>
    <_>
      <rect>
        19 20 1 4</rect></_>
    <_>
      <rect>
        20 15 1 4</rect></_>
    <_>
      <rect>
        20 19 1 2</rect></_>
    <_>
      <rect>
        21 13 2 5</rect></_>
    <_>
      <rect>
        23 13 2 3</rect></_>
    <_>
      <rect>
        23 15 3 3</rect></_>
    <_>
      <rect>
        23 16 3 3</rect></_>
    <_>
      <rect>
        23 18 2 6</rect></_>
    <_>
      <rect>
        23 19 3 4</rect></_>
    <_>
      <rect>
        23 24 3 2</rect></_>
    <_>
      <rect>
        24 20 3 4</rect></_>
    <_>
      <rect>
        25 14 2 6</rect></_>
    <_>
      <rect>
        25 15 2 3</rect></_>
    <_>
      <rect>
        25 17 2 2</rect></_>
    <_>
      <rect>
        26 2 3 12</rect></_>
    <_>
      <rect>
        26 5 2 2</rect></_>
    <_>
      <rect>
        26 8 4 3</rect></_>
    <_>
      <rect>
        26 9 3 8</rect></_>
    <_>
      <rect>
        26 11 2 3</rect></_>
    <_>
      <rect>
        26 11 3 6</rect></_>
    <_>
      <rect>
        26 12 3 3</rect></_>
    <_>
      <rect>
        26 15 3 5</rect></_>
    <_>
      <rect>
        26 16 3 5</rect></_>
    <_>
      <rect>
        27 19 3 3</rect></_>
    <_>
      <rect>
        28 14 1 3</rect></_>
    <_>
      <rect>
        29 9 2 4</rect></_>
    <_>
      <rect>
        29 10 2 3</rect></_>
    <_>
      <rect>
        29 14 3 4</rect></_>
    <_>
      <rect>
        31 13 2 5</rect></_>
    <_>
      <rect>
        32 14 2 4</rect></_></features></cascade>
</opencv_storage>
